-9.210831679291330010e-02 -1.976377906453217689e-02 8.111891000185715572e-02 -1.047072024578776933e-01 2.031370033306837131e-01
-3.900652098904009435e-01 3.933164944341474012e-01 -2.093759852452721226e-01 -2.538605733596515091e-01 3.494219617093382441e-02
6.800061201374651976e-02 2.161047602764779862e-01 1.514128566954073551e-01 1.847731133125406766e-01 -1.403199697196168827e-01
1.655395987290794180e-01 1.028008374912327411e-01 7.568195345544212471e-02 -1.164260557429909609e-01 2.001350751738058820e-01
-5.774505746387469385e-01 1.001050530803121036e-01 -5.054281668564356567e-01 -2.654124811472161061e-01 3.455290398838556931e-01
1.195048330930772174e-01 -9.592431690657667043e-02 1.231722902233452765e-01 1.350200136117243321e-01 5.674759886771895551e-02
-6.515277262637335365e-02 1.762598326372019075e-01 -8.531899066564416212e-02 1.938314622657719699e-01 1.270192446558961186e-01
5.884461521261168809e-02 3.232983606131498155e-01 -3.822199722128967747e-01 -5.484387419173857303e-01 -4.408609919767987884e-01
-2.971212709038500988e-02 1.228360632392934138e-01 -3.889781102043307626e-02 1.003960730552189429e-01 -2.100289677182566248e-02
-7.384724444476698998e-03 -1.526624816468067636e-01 1.774905180949279404e-01 -4.149576710850915728e-01 -1.447649216941868100e-01
-1.092368836587424320e-02 1.446908952581038854e-01 5.633836318792921627e-02 1.237508464665191404e-02 1.267072194640349869e-01
-3.410034209556712104e-01 -4.467167021349142675e-01 -3.355027461060845761e-02 -2.818015483265963739e-01 3.006735484277135440e-01
-2.378699362103094406e-01 -5.537305334659999856e-01 -8.445647921028524019e-01 -9.429474588459697826e-02 -2.038768015150860535e-01
4.583240458516510407e-01 -4.141169179704676795e-01 -9.063200873707079330e-02 -6.510858118061019217e-02 -3.358208407141308194e-01
7.759266639217690664e-02 -3.263343039090579878e-01 -4.068450556676129759e-01 4.759237490653580455e-02 -3.095220215116971096e-01
3.923509350829008230e-02 1.084068480345427299e-01 1.321067563392838706e-01 1.313351031202057428e-01 1.456851479026446405e-01
-3.226239184532473936e-01 -1.407268017719156064e-02 5.495438442164141818e-02 -5.326555864152668351e-02 -1.609051205680399055e-01
6.719958433562024658e-02 5.162218679214831962e-02 1.642039338894014239e-02 1.305811007900856968e-01 4.908421577842455447e-02
-3.791109593194583738e-01 -3.265595387108294889e-01 2.312419527725637081e-01 4.264378952553252167e-01 -5.272471231125548385e-01
1.428669181988422576e-01 9.609540826577893380e-02 -3.140011360433706683e-02 2.383430260104100196e-01 1.861735494842937100e-01
-2.838150396896547134e-01 4.168450309312156654e-01 -6.008933483385137109e-02 -9.940415388961373888e-02 -1.457521943355115090e-01
-4.301714364990631978e-01 1.193118686488430918e-01 2.445730190116724920e-02 -3.729546791052047450e-01 5.714350518077746660e-02
1.351905940957610040e-02 -9.273778630784558497e-02 7.455361223621889688e-02 2.259894399317587677e-01 1.899968104326649459e-03
3.397919951899079916e-01 -2.604523434947093041e-01 -3.365470771213121548e-01 7.004641912344790333e-02 -1.847460931744024093e-01
-3.873326061178356539e-01 -4.173767721607928860e-01 3.996522276183835931e-01 9.320972971017019160e-02 -4.395088999050038026e-01
1.032403104969673892e-02 1.417790451512100924e-01 -1.500621966584005373e-01 -1.255214612393037721e-01 4.505256837600926656e-02
2.016644411780426915e-01 -7.380837720730402951e-02 5.798601081658261158e-02 -9.682135765827469542e-02 -1.873304939755303655e-01
1.967338428477146892e-02 -1.409564626896624429e-01 4.955737781737406568e-03 -9.956433909123788006e-02 5.774866813468759741e-02
-9.355960141626266935e-02 -1.207746144679100880e-01 1.200122966178311101e-01 -1.290292379190434713e-01 1.001517522229562890e-01
1.603129497793281122e-01 1.146802068743585229e-01 -1.895085736077325722e-01 -5.528099001211924657e-01 -4.591828305133514032e-01
-2.721633825852393454e-02 7.026673022991493378e-02 5.885609457659615046e-02 -3.740479656042731971e-03 1.818920083020132694e-02
-2.804471696294133509e-01 7.006786476018574128e-02 -2.734776783714388815e-01 2.653600912788323662e-01 -8.760605765916189280e-02
-6.467821556642421310e-01 -6.397285874737070888e-01 3.024656028148213771e-01 1.127192390682202200e-01 -1.900186985214006585e-01
-3.028193301289408557e-01 4.816502002773526692e-01 -2.232824073731464187e-01 -3.280415820398455695e-01 -2.609069011624283729e-01
-5.548997937399242214e-02 -2.874517691775781147e-02 1.047325247836993073e-01 5.099499723274013990e-02 8.704895147770184971e-02
1.516284402084054905e-01 2.163529873267642234e-01 -1.839413828251834360e-01 7.055440204103079205e-02 5.505715773289193964e-04
1.836079376316714995e-03 -2.410360116724181156e-01 -1.204045744916096977e-01 5.157344041140556890e-01 -3.864055677186239990e-01
1.839782414807125399e-01 -9.821694598658466113e-02 -3.312782439858306116e-01 -2.180020121748105777e-01 1.504880125870164120e-01
1.298046469928683944e-01 7.396251798559312640e-02 -1.179937286176906408e-01 2.853438652767277192e-02 -1.766513840915321038e-03
-4.761400796376639988e-02 -1.708258812052807635e-02 -1.371898031817399555e-01 -1.347174853963875769e-02 1.515543885257767398e-01
-7.315891181703029766e-02 7.214989793355423842e-02 7.089419342761643650e-02 -7.766845107465218667e-02 -8.574722715878940749e-02
-3.441714573233177754e-01 5.759639512604254330e-01 -2.920842549071144267e-01 -3.330785839876929666e-01 -2.943264219495267398e-01
-5.536419771164684533e-01 -6.262391238771528590e-01 2.672724042427953028e-01 -4.042455938481885336e-01 1.501784107477211472e-01
4.806724137055815582e-01 -4.980164974363765484e-01 -2.994931925446035481e-01 -2.779223480202981933e-01 1.270049563553935779e-01
-2.829185947156069858e-01 -2.772503112549140059e-01 5.302740282980537012e-01 -3.757388919871781363e-01 -2.509331677745726963e-01
1.016443618309781499e-01 1.538293607355964154e-01 1.091225434825514873e-01 -4.211680065058629255e-03 -1.015615093766571164e-01
1.329315079074877559e-01 1.128732286416432168e-01 6.998521924180929610e-02 -5.459231503194359597e-02 -1.359918944476379565e-01
-2.898091078777345619e-01 3.896183982365493126e-01 -8.386849803619385313e-02 -1.914461197921896451e-01 -1.539636852084016461e-01
-2.778550820185326509e-01 -3.288916756875462366e-01 -4.105965497613635606e-01 -1.925322835088720819e-01 7.047398125182741113e-01
-1.179298168977867822e-01 -1.755037160956456621e-01 2.156053758286060884e-01 1.874270396149963769e-01 2.257617777971358819e-01
-3.124154517683863097e-01 -2.417399844444708956e-01 -1.530508379795302021e-01 -4.422887045436832421e-01 5.500436153662298100e-01
2.257260582749406330e-01 -1.705936521119092442e-01 2.441933064282073573e-01 -8.157001124038951168e-02 2.448841842329051999e-01
3.138291046412658436e-01 -1.726616483122986323e-01 -1.995796147184925040e-01 -6.600183841195486623e-02 -5.485199612789230100e-02
8.159237008034408989e-02 -4.512308149015309237e-03 1.297333455154256188e-01 -1.016586891562428763e-01 1.025365904280050970e-02
-4.409006270940650785e-01 -1.785830293380451239e-01 1.663435960795855637e-02 -1.042804129858307255e-01 -2.969151546497127148e-02
1.012998619572076098e-01 -9.785808267884969769e-02 -2.507003615793143916e-02 1.054521883114027253e-01 9.035934673716292109e-02
5.702823309486396847e-02 1.637990006050251968e-01 -2.944553835130899258e-02 -8.896155961275045709e-02 -5.378745380114684921e-02
2.061046293270563379e-01 1.902901237022597003e-01 -5.851838660221184846e-02 6.450616560075969619e-02 1.219877768888033798e-04
-2.375171404662234920e-01 1.607191807017225305e-01 1.395415227350737253e-01 2.027881556033299948e-01 2.836554488422204229e-02
-1.233884614798333446e-01 7.329204902304023439e-02 2.094264428829320512e-01 1.390337934140126741e-01 1.444948955509932909e-01
9.870927259326804648e-02 1.388521209204630902e-01 1.711968668856560793e-01 -1.963447179947187260e-01 -5.142774115712554078e-02
4.813779068069970468e-02 2.234811751574644900e-01 -5.157452428562322652e-03 2.049386574710609921e-01 2.310114656026726609e-01
-2.172712450806296366e-02 6.287321969398192156e-02 2.000778317035386555e-01 2.168712158721421146e-01 -1.026360553853870733e-01
-8.864517593841246546e-02 1.555897522908032404e-01 -2.202934424213922604e-01 -2.652035791081905694e-02 -3.702061580149995645e-01
1.336210082221664375e-01 1.747638074201911529e-01 -2.060631070845020396e-01 1.618118355103898842e-01 1.623464711230323265e-01
-3.274195376450904638e-01 -2.391896490603770409e-01 -3.360835285695614183e-01 -2.251823937144848686e-01 4.935715432634920075e-01
-1.197784123228743947e-01 1.366168224444286872e-01 -1.106444685304941999e-01 9.668651410782089228e-02 -2.030914645469886481e-01
-1.590515286342370493e-01 -3.046339879821701180e-01 3.958064957941543893e-01 -3.947766616786901883e-01 -1.131314769945388626e-01
-2.107471677778239572e-01 -1.618339807210348869e-01 -2.741680258402356268e-02 -4.598392431223882193e-01 3.205570372629870102e-01
1.508569126173761321e-01 1.558712395918261107e-01 -7.062851137155767844e-02 -6.258407631030867002e-02 3.234510117422761954e-02
-3.389930014477455233e-01 4.810435632577558240e-01 -2.163803928554504930e-01 -2.775407636718821291e-01 -1.932448785836272942e-01
-3.222645111858601918e-01 4.574718397100655531e-01 -1.571438344661852948e-01 -3.124150180117898912e-01 -2.800935228103405006e-01
1.551497023394894648e-01 -1.601824593935630703e-01 1.260445408509981158e-01 1.535014125657967188e-01 -6.032055236166235235e-02
-4.441165657860287608e-01 -3.493976432146695954e-01 -5.281769116805073994e-01 1.023930408168249040e-01 4.042194453187997749e-01
1.100921020154958796e-01 -1.453153854490182306e-01 1.378259156798280760e-01 -8.406022011810027061e-02 1.537901401207679604e-02
-2.229922924775342430e-01 -3.616435442109262599e-01 5.003416989630147388e-02 2.473410695313920105e-01 -1.968994475389638510e-01
2.698317108703519041e-01 -1.641902856228349417e-01 -5.001137075812893684e-01 1.687804078621268633e-01 -4.994503945683940183e-01
1.763574164297459224e-01 1.061286933715323011e-01 7.930196279980254725e-02 2.281957423879865388e-01 -8.013154506428921131e-02
2.273380078184768227e-02 -1.940603292047003992e-01 3.855556991136114275e-01 -4.011884969180606331e-01 -5.347590908044347335e-01
-4.204034828776665594e-02 4.780943186690064101e-02 -1.438011051307775123e-01 -2.613009263885836542e-01 -1.674067054710991764e-01
2.100058321882100343e-01 -7.545122364436342675e-03 2.454700578196916949e-01 -1.292735842019119286e-01 -1.075300687917261216e-01
-4.496594456619914526e-01 3.111342605690722296e-01 -4.335703028913899248e-01 1.743792025622252495e-01 -1.254990132906885214e-01
7.629633323424726832e-02 9.043896857025757186e-02 1.716428785089276236e-03 -1.565557254648241858e-01 -7.704562903316873601e-02
-2.004955046435910326e-01 3.987045440580917061e-03 -6.578308069969225624e-02 -6.918868666468042106e-02 1.544188658851113893e-01
1.698640794534000686e-01 1.009046976427422915e-01 -2.005445622122852545e-01 1.164331732554289012e-01 2.305246151469248495e-01
4.525103612078921755e-01 -3.866392726122135359e-01 -2.367067072760140611e-01 -1.129531969798748398e-01 -4.624775810945558341e-02
3.105289088994740015e-02 -2.576058998951176737e-01 -3.867977752240338574e-01 -2.267384136054196309e-01 5.027784553712114635e-01
-1.885189248002097917e-01 2.095686550776931500e-01 1.838434045784634666e-02 2.410823288707750478e-01 2.075164008929896720e-01
8.420175014064169849e-02 1.013293280282568931e-01 -1.138074489464724476e-01 9.047093634279143592e-02 1.307456737705881278e-01
1.449002672649428725e-01 5.400616264487591127e-03 6.474424780490310727e-02 1.727542386269698832e-02 7.812578332629419031e-02
-9.660019397881999814e-02 1.438894626203999494e-01 5.680703487411936647e-02 1.010873570281193845e-01 9.957312973728382755e-02
-7.412985379784252371e-02 1.852555671465862530e-01 1.125905963681552713e-01 -8.107075707542088505e-02 -1.540953422731198563e-01
2.116448386331235831e-01 -7.339529195047889143e-02 -4.378107424645807932e-02 -7.121290569710325702e-02 2.151149276141483824e-01
1.979339164788310457e-01 -9.812693246002203440e-02 -3.258796379935269966e-02 -1.637272387290130415e-01 3.997989531817325998e-02
4.171840730118099860e-01 -4.460719889288830009e-01 -2.802377417732772047e-01 -8.356845021780875959e-02 -5.601500393573632941e-02
1.237254941415960874e-01 1.969824185482548784e-01 -1.864020443670845462e-01 1.865353055417076911e-01 5.799426781636328465e-02
1.986603878970270021e-01 9.055606407836501448e-02 -7.640822306220831917e-02 1.121640538762834621e-01 -9.656901295847743205e-02
3.735531153255529646e-01 -3.260104276698903014e-01 -1.280112859955513487e-02 -6.825364547400294968e-02 -1.393946581409258312e-01
4.068287438802955513e-01 -4.805096856202123456e-01 -1.716636325578566047e-01 -3.579031457412160111e-01 -5.565895387026780633e-02
2.520359204323974200e-03 -1.990140388871880772e-01 -8.891738856229922106e-02 2.482969707695152628e-01 -2.016898946222627498e-01
2.015441720979235518e-01 1.142707401669909029e-01 -2.132719514426754392e-01 1.963555476144293044e-01 -5.377456669495557506e-02
-1.118498480425525188e-01 -3.772495411741617205e-02 1.988992989779402032e-01 1.421335446038965722e-01 2.503748230789264867e-02
1.479925341939214156e-01 -5.612652794115954163e-02 1.799616329063170039e-01 2.213623436150965185e-01 2.061018350980426406e-01
1.773383897760791583e-01 5.875696306166824923e-02 1.298280560188267430e-01 1.004935461310014905e-01 2.401353474701621860e-01
-1.252252160894544719e-01 1.462980171665649309e-01 -5.661199936602709926e-01 2.719986792765534678e-01 -3.481698920402395703e-01
1.690725826206605775e-01 1.726391108124521179e-01 -1.040016841000570985e-01 -2.628532025652059456e-01 -1.853233300757009278e-03
1.839567632488772475e-01 -1.750607737624221560e-01 -7.237214688275019070e-02 1.239158331727350203e-02 2.448244541746645575e-01
-3.265333476106412891e-01 -3.514955053764221016e-01 6.072742601602415524e-02 -4.532231997368117438e-01 2.591311959765724149e-01
1.369851528016459083e-02 1.321233069645560421e-01 6.041563857979004998e-02 4.939305910342374484e-02 -8.086961190660348076e-02
-4.142692272760264277e-02 -5.546621458108638020e-02 -2.687758563572203441e-01 -1.484837582412131263e-01 2.692783619736246470e-01
7.564558384924938150e-02 3.032498410807904499e-01 -3.708556491424689350e-01 -6.424229470712955470e-01 -4.724356531331292408e-01
6.138628264333232526e-02 -6.224948526492603967e-02 8.077846627879728403e-02 -3.938253781006079701e-01 -9.094114059961173613e-01
1.047714344096952466e-01 1.267977413034330481e-01 1.361870960824012322e-01 9.568095730509829089e-02 -1.960794144834844543e-02
-3.760228433890056565e-01 8.908300972538057971e-02 -1.260750513074788137e-01 1.107883865889792568e-01 -1.619048296384547614e-01
-2.729312844562409857e-01 -1.649300482283370395e-01 -5.780278628801175378e-01 1.938758979592641873e-02 3.862129618379389062e-01
-6.244423754778078567e-02 3.550967247811152167e-02 1.817992298935799667e-01 1.610522844387648686e-02 1.835762824783212024e-02
1.422993569600824459e-01 1.505518499630000284e-01 7.733311189613956138e-02 1.505796771816694975e-02 -1.061157591953559576e-01
-7.699755767233098513e-01 -7.048782334093423030e-01 -2.208664364863865137e-01 2.082294018735628138e-01 2.866306606793974088e-01
1.524765771936153758e-01 3.900129256263506344e-02 -1.122964392624193758e-01 -8.721288155265936870e-02 6.611821114260485466e-02
-1.039445941537836121e-01 -4.930101834986234666e-01 -5.979993841905183460e-01 1.587114889592315392e-01 2.836095827757302290e-01
1.089353016494560254e-02 3.217315175597887378e-02 4.110899569138551368e-02 -2.026556357281887877e-01 1.324711280550371906e-01
1.673242947420519877e-01 1.472597876069528799e-01 1.043783739610538996e-01 -2.732305731536748342e-02 2.325588394487356214e-01
2.281829865474117314e-01 -1.326933892104834867e-01 -2.471365565826324495e-01 -4.337651754973653184e-01 -1.474464009389102326e-01
-8.067086039726410751e-02 -1.974436890470898653e-02 -1.247645349558367846e-02 -1.522747602620489471e-01 1.618276541447604411e-01
1.464939013187567807e-01 2.056805818609362679e-01 2.307666223103628789e-01 2.247303192705885355e-01 -5.912498762426480342e-02
-5.849325901965552604e-02 2.347541530352114936e-01 1.605399332532007617e-01 -1.381943621104243514e-01 2.104499539602913971e-01
8.281575520122748391e-02 2.656017583875344701e-01 -3.039923098978637994e-01 -5.027023650000738142e-01 -3.599139897246992903e-01
1.015181338436079439e-01 4.675825836544031389e-02 -3.400779740021859371e-02 -1.247850883335309552e-01 2.299688646730275662e-02
-6.622213980956952462e-01 2.360487070541503196e-01 -4.481814487670350289e-01 2.168777929412106786e-01 -1.445683552808534333e-01
4.738081256015601317e-02 2.405022992002870189e-02 -1.787050199238372217e-01 1.587605061926247729e-01 2.002725468828043809e-01
4.180811932406736098e-01 -4.774958908495920418e-01 -1.236177749756055960e-01 -3.611098546071383475e-01 -1.296626102416241766e-01
2.371922729116346940e-01 -1.942738836929191193e-01 5.607800592423004687e-02 -1.915861312792608295e-01 2.318493840492413527e-01
-3.281703710132903851e-01 -2.646607472291340746e-01 6.855675366323857878e-01 -2.744498764517913081e-01 -5.216026356491163529e-01
2.806814255555105733e-02 3.447398883477709869e-02 5.485495759716593756e-02 1.387896518596920536e-01 5.975828650551590765e-02
-3.137363962216977581e-02 -1.789486888829890099e-01 -6.424722346229784498e-02 1.500700585022453869e-03 2.499112367078339392e-01
4.474952223653391042e-02 5.599461345274688723e-02 1.318268260648016721e-01 1.476071494324211475e-01 -7.920812049097719632e-02
-6.008453687236322421e-02 1.040668299554840803e-01 -3.516917365752424834e-02 9.059834366164946917e-02 6.900184990872049173e-02
-3.220902761761689770e-01 1.997469799584967176e-01 -3.824640724161897931e-01 -1.892182900285043767e-01 1.875949572031702650e-01
6.556914122825689695e-02 5.252852697136643073e-02 1.969540088144007273e-01 1.093305373175767342e-01 1.765173447055647937e-01
-1.032168664198265529e-01 -8.016507357978214232e-02 -1.379866635763924987e-01 2.450245080151473298e-01 -5.066142071106685685e-02
-2.302827376114283675e-01 1.084865049332415718e-02 4.232344101902759115e-01 -2.135734337647566261e-01 -4.037753481117508092e-01
1.168780299133220270e-02 -5.640142835984178482e-02 1.732411753056814496e-01 1.879976981555622761e-01 -1.244269704553401662e-01
-1.747851592190078629e-01 2.392324586467881875e-01 -1.568073036708063916e-01 4.112780552193375655e-02 -2.011025490676640701e-04
-1.721552212196194309e-01 8.506730159480484221e-02 1.871231248734493702e-01 -1.039770670285787846e-01 -2.894284105203665525e-01
-4.262081362949267649e-01 1.691005919232877464e-01 -6.529879296562554059e-01 3.898324811544077728e-01 -2.180068716217773150e-01
7.036713441769720800e-02 -7.110821641720181663e-02 2.322322809609707328e-01 2.390954688047386423e-01 1.328568334707642962e-01
1.215271722981075275e-01 -5.022783752518172884e-01 -3.661963557238393646e-02 -2.049877891110156447e-01 1.112452054474415419e-01
1.667349323904780967e-01 9.024141816138403493e-02 -1.106018862331874381e-01 -9.288410468466580527e-02 2.115197251231600017e-01
-5.101602268704573673e-01 -5.096256661245575081e-01 6.521304009259780710e-01 -2.090798160841397801e-01 -4.319427138334491767e-01
-3.003051456460983371e-01 -3.198750102779606141e-01 4.112204098887315973e-01 -4.391107161958663352e-01 -5.869860230888392788e-02
1.772398006920695157e-01 1.609551004813124797e-01 2.086849248914535437e-01 1.336959702729824118e-01 -1.276244638003834753e-01
-5.757259960909236890e-02 3.096569196821701286e-01 9.788303820893936094e-03 -9.176623560597266249e-02 -2.471023447045060939e-01
2.510788993265945512e-01 -3.191249681795648163e-01 -4.693797980766731825e-01 -2.817023251942085693e-01 1.911553023611594349e-01
-1.271720398165489818e-01 2.008851216746884161e-01 -1.268911942585748860e-02 2.351789205116066039e-01 2.038086199206241012e-01
2.087688870477902026e-01 6.869650846524667787e-02 6.056231438640995168e-02 -4.849320667780051414e-02 -2.336295079286752618e-01
-2.556383514711340621e-01 1.657600082107299477e-01 -6.573970549313747913e-01 -4.636870518397846475e-01 2.302584355840051056e-01
2.838256706410500207e-01 1.147805148872292971e-02 -2.693395851055854773e-01 -5.158232166249546724e-01 -3.873623470882729958e-01
2.533244302595767383e-01 2.109874263786688103e-02 -9.975603268186730710e-02 -1.482275407398989386e-01 -1.327794535732192971e-01
1.261998397636909242e-01 -4.482755455496781338e-01 2.606953393693973164e-01 -1.847512101185949662e-01 -6.256165163426883336e-01
8.836609100693601504e-02 1.727253575516751460e-01 -3.720530592052305741e-01 -5.740462800720131931e-01 -2.722814322155701072e-01
1.179532849605354206e-01 1.350229489611326217e-01 -2.904012816798241803e-02 -3.741782817089525648e-02 -1.285988979445461811e-01
-8.107810763098576012e-02 6.177643319393513743e-02 -2.407602294372732932e-01 -2.565601990027646107e-01 2.380588315876683292e-01
1.720749492566785166e-01 -3.052362159283864007e-01 -1.510223144328887712e-01 8.311129646678641625e-02 -6.552697290304247690e-02
3.458599622341279600e-01 -7.684560373741439188e-01 -8.196716801227228733e-02 -3.050797786560585645e-01 -6.632970851563153858e-02
-2.148770371123848166e-01 1.924314128305594854e-02 1.767483634788912794e-01 1.742922976334732033e-01 7.363398666469653242e-02
1.121123939194008240e-02 -1.572407977641748222e-01 -1.690075035548361804e-01 -8.939444295260529083e-02 3.136714924682068029e-01
2.189279577012285538e-01 -7.394742860754040248e-02 1.723313656804752875e-02 2.019227657295562250e-01 -6.635777201351483745e-02
2.206416329247162800e-01 -1.091480857376723734e-01 -1.605606431728144601e-01 -1.363486701380101085e-01 -1.792707055941491351e-02
4.175431444362719124e-02 1.480110047612893769e-02 9.267976923583579052e-02 -2.838623464474284708e-01 -3.347933496297023637e-01
-4.712233777305471771e-01 3.829474332414847804e-02 -1.506429506989706568e-01 3.897462070068722917e-01 -6.098785911040980334e-01
3.578201649491126179e-01 -3.014326579401715445e-01 -1.862383446538968257e-01 -3.037246234080422380e-01 -1.394254181268840265e-01
-2.595219082383588560e-01 -1.314781199679470880e-01 -1.624699237638014826e-01 -4.140424066935419756e-01 4.160041180182312281e-01
-4.045235832295736300e-02 1.470985342610061919e-01 1.853633798019853063e-01 -1.926823279862707461e-01 1.787118680233405477e-01
-3.869423985113203401e-01 -3.992386398349218601e-01 5.164379961800533714e-01 -2.618422360606938448e-01 -2.324048653917749341e-01
-1.376750226920718479e-03 3.962756970666739958e-02 1.806917258543158655e-01 8.333155565569656809e-02 -8.051888796659772973e-02
1.516116948919738749e-01 -1.313180046195785711e-01 -1.626494338336834794e-02 2.353032164550465655e-01 2.485639308345387322e-02
-2.545269868728601281e-01 4.462486503399701321e-01 -1.495144638414802607e-01 -2.338277409238467830e-01 -1.860248726079578585e-01
6.229031745355362304e-02 1.628616574525955929e-01 -1.926624837276330049e-01 1.483686774672337838e-01 1.047211087002902219e-01
2.487805291446549549e-01 -4.694904611426327090e-01 -2.999507387864701613e-01 9.764502562468463376e-02 1.185412499322186994e-02
-5.677525210433557179e-01 5.625400932230120166e-01 -3.609340663457748510e-01 -2.606949834616710815e-01 3.136450930328364001e-02
-2.062985036238118228e-02 1.827354256937545607e-01 -8.456571324223816077e-02 6.373159184033067026e-02 1.117876333776712805e-01
-1.878901544405800761e-01 -4.016482592045608202e-01 3.080144213917125895e-01 2.476454675932600602e-01 -4.452130995589905771e-01
-1.992370366217205147e-01 -2.431771077462290542e-01 -3.871415703210898118e-02 4.538701034303216364e-01 -2.309799411335079766e-01
-8.166702078469517678e-01 -2.582887292974531679e-01 2.314560612985783888e-02 8.202832944713250862e-02 -2.761627387602379469e-01
6.096380801344315759e-02 1.213937018884531649e-01 -1.333488359670875235e-02 -6.999787488323447326e-02 1.216985022734543703e-02
-3.210888944384517052e-02 -8.802438912996957132e-02 9.404014108102905223e-02 1.988349343638117495e-01 5.811438165072926182e-02
1.488186906154702338e-02 -3.057831411491044871e-01 2.894029979490339022e-01 -2.222942530564168684e-01 -1.368510800275019590e-01
-8.695095167530492164e-02 3.606922511875321757e-01 -1.586762603831164409e-01 -2.557156816936854149e-01 -1.117205984926639278e-01
5.257293309710634605e-02 1.033105181309164865e-02 -7.676149110967911242e-03 8.521739585300511233e-02 -8.176757308281516756e-02
1.564161161015295010e-01 -3.269326745558718411e-02 1.052991871105285054e-01 -1.065908862961817694e-01 -2.436939995287442512e-02
2.012564257935757842e-02 -1.147044272214069703e-02 4.855604802030381167e-02 -1.794917539203408907e-01 1.999182105920201125e-01
-3.409918787336765900e-01 -4.354381810629512906e-01 -3.401774547355763123e-01 4.779813343003243009e-01 3.364797950978640206e-02
-3.121905616386448923e-01 -2.986190893459693130e-01 6.071992452761160175e-01 -2.800887322653350942e-01 -2.784638994169217341e-01
-9.138916486635598538e-03 1.840126692791709331e-02 -2.589371132045626203e-02 8.717306437159445809e-02 4.484899841346276506e-02
-9.420229644829987425e-02 3.213358475288602967e-01 -1.711152248967417466e-01 -1.184977323027602697e-01 -1.288424484224272026e-01
-3.154545785164422633e-01 4.536209445464511325e-01 -3.089155455108695270e-01 -3.342317119903052136e-01 -2.147215156307602513e-01
-2.586504342492699782e-01 -3.846005070192046182e-01 -1.819007254993549039e-01 -2.111275364040912650e-01 2.890113747808687461e-01
1.243346870399335696e-01 4.509844877012990361e-02 1.006146461445031198e-01 7.283721599865583540e-02 -5.657800736593537883e-02
1.241063275503787207e-02 1.087848841277304079e-01 -1.416030405394213820e-01 3.235131145534099473e-02 -1.922638930680380109e-02
-3.492142865266940205e-02 2.995907795049865263e-01 -1.720978140650830102e-01 -1.980607646637687902e-01 -2.877559585988655466e-01
3.788860203337360288e-01 -1.181013261632051781e-01 -2.030485074842286186e-01 -2.679449411966956518e-01 -2.616979955105415145e-01
